digraph Tree {
node [shape=box, style="filled, rounded", color="black", fontname="helvetica"] ;
graph [ranksep=equally, splines=polyline] ;
edge [fontname="helvetica"] ;
rankdir=LR ;
0 [label=<W &le; 0.133<br/>squared_error = 3.955<br/>samples = 406<br/>value = 0.793>, fillcolor="#fef8f4"] ;
1 [label=<Volumetric porosity &le; 0.593<br/>squared_error = 1.605<br/>samples = 392<br/>value = 0.643>, fillcolor="#fef9f6"] ;
0 -> 1 [labeldistance=2.5, labelangle=-45, headlabel="True"] ;
2 [label=<m/z_at_pH7.0 &le; 434.48<br/>squared_error = 0.336<br/>samples = 308<br/>value = 0.35>, fillcolor="#fefcfa"] ;
1 -> 2 ;
3 [label=<G &le; 0.108<br/>squared_error = 0.042<br/>samples = 198<br/>value = 0.077>, fillcolor="#ffffff"] ;
2 -> 3 ;
4 [label=<squared_error = 0.019<br/>samples = 187<br/>value = 0.045>, fillcolor="#ffffff"] ;
3 -> 4 ;
5 [label=<squared_error = 0.1<br/>samples = 11<br/>value = 0.634>, fillcolor="#fef9f6"] ;
3 -> 5 ;
6 [label=<Thickness &le; 196.667<br/>squared_error = 0.489<br/>samples = 110<br/>value = 0.841>, fillcolor="#fdf7f3"] ;
2 -> 6 ;
7 [label=<squared_error = 0.608<br/>samples = 60<br/>value = 1.114>, fillcolor="#fdf5ef"] ;
6 -> 7 ;
8 [label=<squared_error = 0.149<br/>samples = 50<br/>value = 0.512>, fillcolor="#fefaf8"] ;
6 -> 8 ;
9 [label=<m/z_at_pH7.0 &le; 434.48<br/>squared_error = 4.787<br/>samples = 84<br/>value = 1.719>, fillcolor="#fcefe6"] ;
1 -> 9 ;
10 [label=<P &le; 0.051<br/>squared_error = 1.851<br/>samples = 54<br/>value = 0.768>, fillcolor="#fef8f4"] ;
9 -> 10 ;
11 [label=<squared_error = 2.695<br/>samples = 24<br/>value = 1.585>, fillcolor="#fcf0e8"] ;
10 -> 11 ;
12 [label=<squared_error = 0.215<br/>samples = 30<br/>value = 0.115>, fillcolor="#fffefe"] ;
10 -> 12 ;
13 [label=<m/z_at_pH7.0 &le; 1288.691<br/>squared_error = 5.525<br/>samples = 30<br/>value = 3.429>, fillcolor="#f8decc"] ;
9 -> 13 ;
14 [label=<squared_error = 2.152<br/>samples = 21<br/>value = 4.495>, fillcolor="#f6d4bb"] ;
13 -> 14 ;
15 [label=<squared_error = 4.549<br/>samples = 9<br/>value = 0.94>, fillcolor="#fdf6f1"] ;
13 -> 15 ;
16 [label=<Thickness &le; 215.367<br/>squared_error = 51.44<br/>samples = 14<br/>value = 4.999>, fillcolor="#f5cfb4"] ;
0 -> 16 [labeldistance=2.5, labelangle=45, headlabel="False"] ;
17 [label=<Thickness &le; 189.417<br/>squared_error = 2.601<br/>samples = 10<br/>value = 1.768>, fillcolor="#fceee5"] ;
16 -> 17 ;
18 [label=<squared_error = 2.687<br/>samples = 5<br/>value = 2.878>, fillcolor="#f9e4d4"] ;
17 -> 18 ;
19 [label=<squared_error = 0.052<br/>samples = 5<br/>value = 0.658>, fillcolor="#fef9f6"] ;
17 -> 19 ;
20 [label=<squared_error = 82.178<br/>samples = 4<br/>value = 13.078>, fillcolor="#e58139"] ;
16 -> 20 ;
{rank=same ; 0} ;
{rank=same ; 1; 16} ;
{rank=same ; 2; 9; 17} ;
{rank=same ; 3; 6; 10; 13} ;
{rank=same ; 4; 5; 7; 8; 11; 12; 14; 15; 18; 19; 20} ;
}